//Numpy array shape [5, 5, 1, 4]
//Min -0.562500000000
//Max 0.593750000000
//Number of zeros 1

#ifndef W4_H_
#define W4_H_

#ifndef __SYNTHESIS__
weight4_t w4[100];
#else
weight4_t w4[100] = {-0.531250, -0.296875, -0.375000, -0.078125, 0.031250, -0.468750, 0.281250, -0.343750, -0.140625, 0.500000, 0.140625, 0.390625, 0.234375, -0.500000, 0.171875, -0.218750, 0.046875, 0.109375, 0.109375, -0.390625, -0.296875, -0.203125, -0.015625, -0.421875, -0.265625, 0.437500, 0.234375, -0.406250, -0.250000, 0.109375, 0.156250, -0.531250, 0.375000, 0.109375, -0.156250, 0.593750, -0.250000, -0.343750, -0.546875, -0.203125, -0.109375, 0.031250, 0.125000, -0.156250, 0.093750, 0.218750, 0.484375, -0.484375, 0.281250, 0.203125, 0.109375, -0.156250, 0.000000, -0.171875, 0.078125, -0.437500, 0.234375, -0.062500, -0.390625, -0.125000, -0.500000, 0.156250, 0.265625, -0.531250, 0.390625, -0.234375, 0.078125, -0.500000, 0.281250, -0.218750, 0.093750, 0.171875, 0.281250, -0.406250, -0.109375, 0.156250, 0.218750, 0.093750, 0.359375, 0.328125, 0.031250, -0.046875, 0.421875, -0.328125, 0.234375, -0.156250, -0.359375, -0.296875, 0.265625, 0.031250, -0.296875, 0.421875, -0.328125, -0.437500, -0.125000, -0.562500, 0.109375, -0.203125, 0.218750, 0.531250};
#endif

#endif
