//Numpy array shape [504, 16]
//Min -0.750000000000
//Max 0.750000000000
//Number of zeros 4091

#ifndef W8_H_
#define W8_H_

#ifndef __SYNTHESIS__
weight8_t w8[8064];
#else
weight8_t w8[8064] = {0.00, 0.00, 0.00, 0.00, 0.00, -0.25, -0.25, -0.25, -0.25, -0.25, -0.25, 0.00, 0.00, -0.25, 0.00, -0.25, 0.00, -0.50, 0.00, 0.00, -0.25, -0.25, -0.50, -0.50, -0.50, -0.25, -0.50, -0.25, 0.00, -0.25, -0.25, -0.50, 0.25, 0.00, 0.00, 0.00, 0.00, 0.00, -0.25, -0.25, 0.00, 0.00, -0.25, 0.00, 0.25, -0.25, 0.00, -0.25, 0.25, 0.00, 0.00, -0.25, 0.00, 0.25, 0.25, 0.00, 0.00, 0.00, 0.00, 0.00, 0.00, 0.00, 0.00, 0.00, 0.00, 0.00, 0.00, 0.00, -0.25, -0.25, 0.00, -0.25, 0.00, -0.25, 0.00, -0.25, -0.25, -0.25, -0.25, 0.00, 0.25, -0.50, 0.25, 0.00, -0.25, -0.25, -0.50, -0.50, -0.50, 0.00, -0.50, 0.25, 0.00, -0.25, 0.00, -0.50, 0.00, -0.25, 0.25, 0.00, 0.00, 0.00, 0.00, -0.25, -0.25, -0.25, -0.25, 0.00, 0.00, -0.25, -0.25, -0.25, 0.25, -0.25, 0.00, 0.00, -0.25, -0.25, -0.25, -0.25, -0.50, 0.00, -0.25, -0.25, 0.00, -0.50, 0.00, -0.50, 0.00, 0.00, -0.25, -0.25, 0.00, 0.00, 0.00, 0.00, 0.00, -0.25, 0.00, 0.25, -0.25, 0.00, 0.00, -0.25, 0.00, -0.25, 0.00, 0.00, -0.25, 0.00, -0.25, -0.25, -0.50, 0.00, -0.25, -0.25, 0.25, -0.25, 0.00, -0.25, 0.00, 0.25, 0.00, 0.00, 0.00, 0.25, -0.25, -0.25, -0.25, 0.00, -0.25, 0.00, 0.00, -0.25, 0.00, -0.25, 0.25, 0.00, 0.25, 0.00, 0.00, 0.00, 0.00, 0.00, 0.00, 0.00, 0.00, 0.25, 0.00, 0.00, 0.25, 0.00, 0.00, 0.00, -0.25, 0.00, -0.25, -0.50, -0.25, 0.00, 0.00, -0.25, 0.00, 0.00, -0.25, -0.25, -0.25, 0.00, 0.00, 0.00, 0.00, 0.00, 0.00, 0.00, -0.25, -0.25, -0.25, 0.00, -0.50, 0.00, 0.25, -0.50, 0.25, -0.50, 0.25, -0.25, -0.25, 0.00, 0.00, -0.25, 0.00, -0.25, 0.00, 0.00, -0.25, 0.00, 0.00, -0.25, -0.25, 0.00, 0.00, 0.00, 0.00, 0.00, 0.00, 0.00, -0.25, -0.25, -0.25, -0.25, -0.25, 0.00, 0.00, -0.25, 0.00, -0.25, 0.00, -0.25, -0.25, 0.00, 0.00, 0.00, -0.25, -0.25, -0.25, -0.25, -0.25, 0.00, 0.00, 0.25, 0.00, -0.25, 0.00, -0.25, -0.25, 0.00, -0.25, 0.00, -0.50, -0.25, -0.25, -0.25, 0.00, 0.00, 0.25, -0.25, 0.00, -0.25, 0.00, -0.25, -0.25, 0.00, -0.25, 0.00, -0.25, -0.25, -0.25, -0.25, 0.00, 0.25, 0.00, -0.25, 0.25, -0.25, 0.25, 0.00, 0.00, 0.00, 0.00, 0.25, 0.00, 0.00, 0.00, 0.25, 0.00, 0.25, 0.00, 0.00, 0.25, 0.00, 0.00, -0.25, -0.25, -0.25, -0.25, -0.25, -0.25, 0.25, -0.25, -0.25, -0.25, 0.00, -0.25, 0.00, 0.00, 0.00, 0.25, -0.25, 0.00, 0.00, -0.25, 0.00, -0.25, -0.25, -0.25, -0.25, -0.50, 0.00, 0.25, -0.25, 0.00, -0.25, 0.00, -0.25, -0.25, 0.00, 0.00, -0.25, -0.50, -0.25, -0.25, -0.25, -0.25, 0.25, 0.00, -0.25, 0.00, -0.25, 0.25, 0.00, -0.25, 0.00, 0.00, 0.00, -0.25, -0.25, -0.25, -0.25, -0.25, 0.00, 0.00, -0.25, 0.00, -0.25, 0.00, -0.25, 0.00, 0.00, 0.00, 0.00, 0.00, -0.25, 0.00, -0.25, 0.00, 0.00, -0.25, 0.00, 0.00, 0.00, 0.00, -0.25, 0.00, 0.00, 0.00, -0.25, -0.50, -0.25, -0.50, -0.25, -0.25, 0.25, 0.00, 0.00, 0.25, -0.50, 0.00, -0.25, -0.25, 0.00, 0.00, 0.00, -0.25, -0.25, -0.25, 0.00, -0.25, 0.25, 0.00, 0.00, 0.25, -0.25, 0.25, 0.00, 0.00, -0.25, 0.00, 0.25, 0.00, 0.00, 0.00, 0.00, 0.00, 0.00, 0.25, 0.00, 0.25, 0.00, 0.00, 0.00, -0.25, 0.00, 0.25, -0.25, 0.00, 0.00, 0.25, -0.25, 0.00, 0.00, -0.25, 0.00, 0.00, 0.00, 0.25, -0.25, -0.25, 0.00, 0.00, 0.00, -0.25, -0.25, -0.25, -0.25, -0.50, 0.00, 0.25, 0.00, 0.50, -0.50, 0.25, -0.25, -0.25, 0.00, 0.00, -0.25, -0.25, -0.25, 0.00, 0.00, -0.25, 0.00, 0.00, 0.00, 0.00, -0.25, 0.00, -0.25, -0.25, -0.25, 0.00, 0.00, 0.00, -0.25, -0.25, -0.25, -0.25, 0.25, 0.25, -0.25, 0.25, -0.25, 0.25, -0.25, -0.25, -0.25, 0.25, 0.00, 0.00, 0.00, -0.25, -0.25, 0.00, 0.00, -0.25, 0.25, -0.25, -0.25, 0.00, -0.25, -0.50, 0.00, 0.25, -0.25, -0.50, -0.50, -0.25, -0.25, -0.25, 0.25, 0.00, 0.25, 0.00, -0.50, 0.00, -0.25, -0.25, 0.00, 0.25, 0.00, -0.25, -0.25, -0.25, 0.00, -0.25, 0.25, -0.25, 0.00, 0.00, -0.25, 0.25, 0.25, 0.25, 0.00, 0.00, 0.00, 0.25, 0.00, 0.00, 0.00, 0.00, 0.00, 0.00, 0.00, 0.25, 0.00, 0.25, -0.25, -0.25, 0.25, 0.25, 0.00, 0.00, 0.00, 0.00, -0.25, 0.00, 0.00, 0.00, 0.25, 0.00, 0.00, 0.00, -0.50, -0.25, 0.00, 0.25, -0.25, -0.25, -0.25, -0.25, 0.00, -0.25, 0.25, 0.00, 0.00, 0.00, -0.50, 0.00, -0.25, -0.25, 0.00, 0.25, 0.00, -0.25, -0.25, 0.00, -0.25, -0.25, 0.00, -0.25, 0.25, 0.00, 0.00, 0.00, -0.25, 0.00, 0.00, 0.25, 0.00, -0.25, -0.50, -0.25, -0.25, -0.25, 0.00, 0.00, 0.25, 0.00, -0.25, 0.00, -0.25, -0.25, -0.25, 0.00, 0.25, 0.00, -0.25, -0.25, -0.25, -0.25, 0.00, 0.00, 0.00, 0.00, 0.00, 0.00, -0.25, 0.00, -0.25, 0.00, 0.25, -0.25, -0.25, -0.25, -0.25, -0.25, 0.25, 0.00, 0.25, 0.25, -0.25, 0.00, 0.00, 0.00, 0.25, 0.25, 0.25, -0.25, -0.25, -0.25, 0.00, -0.25, 0.25, 0.25, 0.00, 0.25, -0.25, 0.25, 0.00, 0.00, 0.00, 0.00, 0.00, 0.00, 0.25, 0.00, 0.00, 0.00, 0.00, 0.25, 0.00, 0.00, 0.00, 0.25, -0.25, -0.25, 0.00, 0.25, 0.25, -0.25, 0.00, 0.00, -0.25, 0.00, 0.00, 0.00, 0.00, 0.25, 0.00, 0.25, -0.25, -0.25, 0.00, 0.00, 0.25, -0.25, -0.25, -0.25, -0.25, 0.00, 0.25, 0.00, 0.50, 0.00, -0.50, 0.00, 0.00, -0.25, 0.00, 0.00, 0.25, -0.25, -0.25, -0.25, -0.25, -0.25, 0.25, 0.00, 0.25, 0.00, 0.00, 0.00, 0.00, 0.00, 0.00, 0.25, 0.25, -0.25, -0.25, -0.25, 0.00, -0.25, 0.25, 0.00, 0.25, 0.25, -0.25, 0.00, -0.25, -0.25, 0.00, 0.00, 0.25, -0.25, -0.25, 0.00, 0.00, 0.00, 0.00, 0.25, 0.25, 0.25, 0.00, 0.00, -0.50, -0.50, 0.00, 0.25, 0.25, -0.50, -0.25, -0.25, -0.25, -0.50, 0.25, 0.00, 0.50, 0.25, -0.50, 0.00, -0.25, 0.00, 0.00, 0.25, 0.50, -0.25, -0.25, -0.25, 0.00, -0.25, 0.25, 0.00, 0.50, 0.25, -0.50, 0.00, 0.00, 0.25, 0.00, 0.25, 0.00, 0.00, 0.00, 0.00, 0.00, 0.00, 0.00, 0.00, 0.00, 0.00, 0.00, 0.00, 0.00, -0.25, 0.00, 0.00, 0.25, -0.25, 0.00, 0.00, 0.00, -0.25, 0.25, 0.25, 0.00, 0.00, 0.00, 0.00, -0.50, -0.50, 0.00, 0.00, 0.25, -0.50, -0.50, -0.25, 0.00, -0.50, 0.25, 0.00, 0.25, 0.25, -0.50, 0.25, -0.50, 0.00, 0.00, 0.25, 0.25, -0.25, 0.00, 0.00, -0.25, 0.00, 0.50, 0.00, 0.00, 0.25, 0.00, 0.00, -0.25, -0.25, -0.25, 0.25, 0.25, -0.25, -0.50, -0.25, 0.00, -0.25, 0.25, 0.25, 0.50, 0.00, -0.50, 0.00, 0.00, 0.25, 0.00, -0.25, 0.00, -0.25, -0.50, -0.25, 0.25, -0.25, 0.00, -0.25, -0.25, 0.00, 0.00, 0.00, -0.25, 0.50, 0.00, 0.00, 0.25, -0.25, -0.25, -0.50, 0.50, -0.50, 0.25, 0.50, -0.25, 0.00, -0.50, 0.00, -0.25, 0.00, 0.00, -0.25, -0.25, -0.25, -0.25, -0.25, 0.00, -0.25, -0.25, 0.00, 0.00, 0.00, -0.50, 0.25, -0.25, -0.25, 0.00, 0.00, 0.00, 0.00, 0.00, 0.00, -0.25, 0.00, 0.00, 0.00, 0.00, 0.00, 0.00, 0.25, 0.00, 0.25, 0.00, -0.25, -0.25, 0.00, 0.00, 0.00, 0.00, 0.00, 0.00, 0.00, -0.25, -0.25, 0.00, 0.00, -0.25, 0.50, 0.00, -0.25, 0.25, -0.25, -0.50, -0.25, 0.00, -0.50, 0.00, 0.25, -0.25, 0.00, -0.50, 0.00, 0.25, 0.75, 0.00, -0.25, 0.00, 0.00, -0.50, -0.25, 0.25, -0.25, 0.00, 0.25, 0.00, 0.25, -0.25, 0.00, -0.25, 0.50, -0.25, 0.00, 0.00, -0.25, -0.50, -0.25, 0.25, -0.50, 0.25, 0.00, -0.25, 0.00, -0.50, 0.00, 0.25, 0.00, 0.00, -0.25, -0.25, -0.25, -0.25, 0.00, -0.25, -0.25, 0.00, -0.25, 0.00, 0.00, -0.25, 0.00, -0.25, 0.50, 0.00, -0.25, 0.00, -0.25, -0.25, -0.25, 0.25, -0.25, 0.25, 0.00, -0.25, 0.25, -0.25, 0.00, -0.25, 0.25, 0.00, -0.25, -0.25, 0.00, -0.25, 0.00, 0.00, -0.25, 0.00, 0.25, -0.25, -0.25, -0.50, 0.25, 0.00, -0.25, 0.00, 0.00, 0.25, 0.00, 0.00, 0.00, 0.00, -0.25, 0.00, 0.00, 0.00, 0.00, -0.25, 0.00, 0.00, 0.00, 0.00, 0.00, -0.25, 0.00, 0.00, 0.00, 0.00, 0.00, 0.00, 0.00, 0.00, -0.25, 0.25, 0.00, -0.25, 0.50, 0.00, 0.00, 0.00, -0.25, -0.25, -0.50, 0.00, -0.50, 0.00, 0.25, 0.00, 0.00, -0.25, 0.00, 0.00, 0.00, 0.00, 0.00, 0.00, -0.25, 0.00, 0.00, -0.25, 0.00, 0.00, 0.00, 0.00, 0.00, 0.00, 0.25, 0.00, 0.50, 0.00, 0.00, 0.25, -0.25, -0.50, -0.25, 0.25, -0.25, 0.00, 0.00, -0.25, 0.00, -0.25, 0.00, -0.25, 0.00, -0.25, -0.25, 0.00, 0.00, -0.25, -0.25, 0.00, 0.00, 0.00, -0.25, 0.00, 0.00, 0.00, 0.00, -0.25, 0.00, 0.00, 0.00, 0.25, -0.25, -0.50, -0.25, 0.00, -0.50, 0.25, 0.25, -0.25, 0.25, -0.50, 0.00, -0.25, -0.25, 0.00, -0.25, -0.25, -0.25, -0.25, -0.25, 0.00, -0.25, 0.00, -0.25, -0.25, 0.00, -0.25, 0.00, 0.00, 0.00, 0.00, 0.00, 0.00, 0.00, 0.00, 0.00, -0.25, 0.00, 0.00, 0.00, 0.00, 0.25, 0.00, 0.00, 0.00, 0.00, 0.00, 0.00, 0.00, 0.00, 0.00, 0.00, -0.25, 0.00, 0.00, 0.00, 0.00, 0.00, 0.00, 0.00, 0.00, 0.25, 0.00, -0.25, 0.00, -0.25, -0.50, -0.25, 0.00, -0.25, 0.50, 0.25, 0.00, 0.00, -0.50, 0.25, 0.00, 0.00, 0.00, -0.25, 0.00, 0.00, -0.25, -0.25, 0.00, 0.00, 0.00, 0.00, 0.00, 0.00, -0.25, 0.00, 0.00, 0.25, 0.00, -0.25, 0.25, 0.00, -0.50, -0.25, 0.00, -0.25, 0.25, 0.25, -0.25, 0.00, -0.25, 0.25, -0.25, 0.00, 0.00, 0.00, 0.00, -0.25, 0.00, -0.25, 0.00, -0.25, 0.00, 0.00, -0.25, 0.00, 0.00, 0.00, 0.00, 0.00, 0.00, -0.25, 0.00, -0.25, -0.25, -0.50, -0.25, -0.25, 0.25, 0.25, -0.25, 0.25, -0.50, 0.00, -0.25, 0.00, 0.00, 0.25, 0.25, -0.25, -0.25, -0.25, 0.00, -0.25, 0.00, 0.00, 0.00, 0.00, -0.25, 0.25, 0.00, 0.00, 0.00, 0.00, 0.00, 0.25, 0.00, 0.00, 0.00, 0.00, 0.00, 0.00, 0.00, 0.00, 0.00, 0.00, 0.00, -0.25, 0.00, 0.00, 0.00, 0.00, 0.00, 0.00, -0.25, 0.00, 0.00, -0.25, 0.00, 0.00, 0.25, 0.25, 0.00, 0.25, 0.00, 0.00, 0.25, -0.25, -0.25, -0.25, -0.25, -0.50, 0.25, 0.00, -0.25, 0.25, -0.50, 0.25, 0.00, 0.00, 0.00, 0.00, 0.00, -0.25, 0.00, 0.00, 0.00, 0.00, 0.00, 0.00, 0.00, 0.25, -0.25, 0.25, 0.00, 0.25, 0.00, 0.25, 0.00, -0.25, -0.50, -0.25, 0.00, -0.25, 0.25, 0.25, -0.25, 0.25, -0.50, 0.25, -0.25, -0.25, 0.00, 0.25, 0.25, -0.25, -0.25, -0.25, -0.25, 0.00, 0.00, 0.00, 0.25, 0.00, -0.25, 0.00, 0.00, 0.00, 0.00, 0.25, 0.00, -0.25, -0.50, -0.25, 0.00, -0.25, 0.00, 0.25, 0.25, 0.25, -0.50, 0.25, -0.25, 0.00, -0.25, 0.00, 0.25, -0.25, -0.25, 0.00, 0.00, -0.25, 0.25, 0.25, 0.00, 0.25, -0.25, 0.25, 0.00, 0.25, 0.00, 0.00, 0.00, 0.25, 0.00, -0.25, 0.25, 0.00, 0.00, 0.00, 0.00, 0.00, 0.00, 0.00, 0.00, -0.25, 0.00, 0.25, 0.00, 0.00, 0.25, 0.00, -0.25, 0.00, 0.00, 0.00, 0.25, 0.00, 0.00, 0.00, -0.25, 0.00, 0.00, 0.00, 0.00, 0.00, -0.25, -0.50, 0.25, -0.50, 0.25, 0.25, 0.00, 0.00, -0.25, 0.00, -0.25, 0.00, 0.00, 0.00, 0.00, 0.00, -0.25, 0.00, -0.25, -0.25, 0.00, 0.00, 0.00, 0.00, 0.00, 0.00, -0.25, 0.25, 0.00, 0.00, 0.25, -0.25, -0.25, -0.25, 0.00, -0.25, 0.25, 0.25, 0.25, 0.25, -0.25, 0.25, 0.00, -0.25, 0.00, 0.00, 0.50, -0.25, 0.00, 0.00, -0.25, -0.25, 0.00, 0.00, 0.00, 0.25, -0.25, 0.00, 0.00, 0.00, 0.00, 0.00, 0.25, -0.25, -0.50, -0.25, 0.25, -0.25, 0.25, 0.25, 0.25, 0.25, -0.25, 0.25, -0.25, 0.25, 0.00, 0.00, 0.50, 0.00, -0.50, -0.25, 0.00, -0.25, 0.25, 0.00, 0.25, 0.00, -0.25, 0.25, 0.00, 0.00, 0.00, 0.00, 0.00, 0.00, 0.00, 0.00, 0.00, 0.00, 0.00, 0.00, 0.00, 0.00, 0.00, 0.00, -0.25, -0.25, 0.00, 0.00, 0.25, 0.00, 0.25, 0.00, -0.25, 0.00, 0.00, 0.00, 0.25, 0.00, 0.00, 0.00, -0.25, 0.25, 0.00, 0.00, 0.00, -0.25, -0.25, -0.25, 0.00, -0.25, 0.25, 0.25, 0.25, 0.00, -0.50, 0.25, -0.25, 0.00, 0.00, 0.00, 0.00, 0.00, -0.25, 0.00, 0.00, -0.25, 0.25, 0.00, 0.00, 0.25, -0.25, 0.00, 0.00, 0.25, 0.00, 0.00, 0.25, 0.00, -0.25, -0.25, 0.00, -0.25, 0.00, 0.25, 0.00, 0.25, 0.00, 0.00, 0.00, 0.00, -0.25, 0.25, 0.50, -0.25, -0.25, 0.00, 0.25, 0.00, 0.25, 0.25, 0.25, 0.25, -0.25, 0.00, -0.25, 0.00, 0.00, 0.00, 0.25, -0.25, -0.25, -0.25, 0.25, -0.50, 0.25, 0.00, 0.25, 0.25, -0.50, 0.00, 0.25, 0.00, 0.00, 0.25, 0.25, -0.50, -0.50, 0.00, 0.25, -0.50, 0.50, 0.50, 0.25, 0.25, -0.50, 0.25, 0.00, 0.00, -0.25, -0.25, 0.00, 0.00, 0.00, 0.00, 0.00, 0.00, 0.00, 0.00, 0.00, 0.00, 0.00, 0.25, 0.00, 0.25, 0.00, 0.25, 0.25, 0.00, 0.00, 0.00, 0.25, 0.00, 0.00, 0.25, 0.00, 0.25, 0.00, 0.25, -0.50, 0.00, 0.00, 0.00, 0.25, -0.50, -0.25, -0.25, 0.25, -0.50, 0.25, 0.25, 0.00, 0.25, -0.50, 0.00, 0.00, 0.00, 0.00, 0.25, 0.50, 0.00, -0.25, 0.00, 0.25, 0.00, 0.00, 0.00, -0.25, 0.25, 0.00, 0.00, 0.00, 0.00, 0.00, 0.25, 0.50, -0.25, -0.75, -0.25, 0.50, -0.25, 0.25, 0.25, 0.00, 0.25, -0.50, 0.00, 0.00, 0.25, 0.00, 0.00, -0.25, -0.25, 0.00, -0.25, 0.00, -0.25, 0.00, 0.00, 0.00, -0.25, 0.00, 0.00, 0.00, 0.25, 0.00, -0.25, 0.00, -0.25, -0.50, -0.25, 0.50, -0.50, 0.00, 0.00, -0.25, 0.00, -0.50, 0.00, 0.25, 0.00, 0.00, 0.00, 0.00, -0.25, -0.25, -0.25, 0.00, -0.50, 0.00, 0.00, 0.00, 0.00, -0.25, 0.25, 0.00, 0.00, 0.00, 0.00, 0.00, -0.25, 0.00, 0.00, 0.00, 0.00, 0.00, 0.00, 0.00, 0.00, 0.25, 0.00, 0.25, 0.25, 0.00, -0.25, -0.25, 0.00, 0.00, 0.00, 0.25, 0.00, -0.25, -0.25, 0.00, -0.25, 0.00, 0.25, -0.25, 0.25, 0.00, 0.00, 0.00, 0.00, -0.50, -0.25, 0.25, -0.50, 0.00, 0.25, -0.25, 0.00, -0.50, 0.00, 0.25, 0.75, -0.25, -0.25, 0.00, 0.25, -0.50, -0.25, 0.75, -0.25, 0.25, 0.50, -0.25, 0.25, -0.25, 0.00, 0.00, 0.00, 0.00, 0.00, 0.00, 0.00, -0.50, 0.00, 0.25, -0.25, 0.00, 0.25, -0.25, 0.00, -0.25, 0.00, 0.00, 0.00, 0.00, 0.00, 0.00, -0.25, 0.00, -0.25, 0.00, -0.25, 0.00, -0.25, -0.25, -0.50, 0.00, 0.00, 0.00, 0.00, 0.00, 0.00, 0.00, -0.25, -0.25, -0.25, 0.00, -0.50, 0.00, 0.25, -0.25, 0.00, -0.25, 0.00, 0.25, 0.00, 0.00, -0.25, 0.00, 0.00, -0.25, -0.25, 0.00, -0.25, 0.00, 0.25, 0.00, 0.00, -0.25, 0.25, 0.00, 0.00, -0.25, 0.00, 0.25, 0.00, 0.00, 0.00, 0.00, 0.00, 0.00, 0.25, 0.00, 0.00, 0.00, 0.25, 0.00, -0.25, 0.00, -0.25, -0.25, 0.00, 0.00, 0.00, -0.25, 0.00, -0.25, -0.25, 0.00, 0.00, 0.00, 0.00, 0.00, 0.25, 0.00, 0.00, 0.00, -0.25, -0.25, -0.25, 0.25, -0.25, 0.25, 0.25, -0.25, 0.00, -0.50, 0.25, 0.25, 0.25, 0.00, 0.00, 0.00, -0.25, 0.00, 0.00, 0.00, 0.25, 0.00, 0.00, -0.25, 0.00, 0.25, 0.00, 0.00, 0.25, 0.00, 0.00, 0.25, 0.00, -0.50, -0.25, 0.00, -0.25, 0.00, 0.00, 0.00, 0.00, -0.25, 0.25, 0.00, -0.25, 0.00, -0.25, 0.00, -0.25, 0.00, 0.00, 0.00, 0.00, 0.00, -0.25, 0.00, 0.00, 0.00, 0.25, 0.00, 0.00, 0.00, 0.00, 0.00, -0.50, -0.50, -0.25, 0.00, -0.50, 0.00, 0.00, -0.25, 0.00, -0.50, 0.00, 0.00, -0.25, 0.00, -0.25, 0.25, -0.50, -0.25, -0.25, 0.25, -0.25, 0.00, 0.00, 0.00, 0.00, -0.50, 0.00, 0.00, 0.00, 0.00, 0.00, 0.25, 0.00, 0.00, 0.00, 0.00, 0.00, 0.00, 0.25, 0.00, 0.25, 0.00, 0.00, 0.00, 0.00, -0.25, 0.00, 0.00, 0.00, 0.00, 0.00, 0.00, 0.25, 0.00, 0.00, 0.00, 0.00, 0.00, 0.00, -0.25, 0.00, 0.00, -0.25, 0.00, -0.25, -0.25, -0.50, 0.25, -0.50, 0.00, 0.25, -0.25, 0.25, -0.50, 0.00, 0.25, 0.00, 0.00, 0.00, 0.00, 0.00, 0.00, 0.00, 0.00, 0.00, 0.00, 0.25, -0.25, 0.00, -0.25, 0.00, 0.00, 0.00, 0.00, 0.00, 0.00, -0.25, -0.25, -0.25, 0.25, -0.25, 0.00, 0.00, -0.25, 0.25, -0.50, 0.00, -0.25, -0.25, 0.00, 0.00, 0.00, -0.25, 0.00, 0.00, -0.25, 0.00, 0.00, 0.00, 0.00, -0.25, 0.00, 0.00, -0.25, 0.00, 0.00, 0.00, 0.25, -0.50, -0.25, -0.25, 0.00, -0.50, 0.25, 0.25, -0.25, 0.00, -0.50, 0.00, 0.00, 0.00, 0.00, 0.00, 0.25, -0.25, -0.25, -0.25, -0.25, -0.25, 0.00, 0.00, -0.25, 0.00, -0.25, 0.25, 0.00, 0.25, 0.00, 0.25, 0.25, 0.00, 0.00, 0.00, 0.00, 0.00, 0.00, 0.00, 0.00, 0.00, 0.00, 0.25, 0.00, 0.00, 0.00, 0.00, 0.00, 0.00, 0.00, 0.00, 0.00, 0.00, 0.00, 0.00, 0.00, 0.00, 0.00, 0.25, -0.25, 0.00, 0.00, 0.00, 0.25, -0.25, -0.25, -0.25, 0.00, -0.50, 0.25, 0.00, -0.25, 0.25, -0.25, 0.00, -0.25, 0.00, 0.00, 0.00, 0.00, 0.00, -0.25, 0.00, 0.00, 0.00, 0.00, 0.00, 0.00, 0.00, -0.25, 0.00, 0.00, 0.25, 0.00, 0.00, 0.00, -0.25, -0.50, -0.25, 0.00, -0.25, 0.25, 0.25, -0.25, 0.25, -0.25, 0.00, -0.25, -0.25, 0.25, 0.00, 0.50, -0.25, 0.00, 0.00, 0.00, -0.25, 0.00, 0.00, 0.25, 0.25, -0.25, 0.25, 0.00, 0.25, 0.00, 0.25, 0.25, -0.25, -0.50, -0.25, 0.00, -0.25, 0.25, 0.25, 0.00, 0.25, -0.50, 0.00, 0.00, 0.00, 0.00, 0.25, 0.50, -0.25, -0.25, -0.25, -0.25, -0.25, 0.25, 0.25, 0.25, 0.00, -0.50, 0.25, 0.00, 0.25, 0.00, -0.25, 0.00, 0.00, 0.00, 0.00, 0.00, 0.00, 0.25, 0.00, 0.00, 0.00, 0.00, 0.25, -0.25, -0.25, 0.00, 0.25, 0.25, -0.25, 0.00, 0.00, -0.25, 0.00, 0.00, 0.00, 0.00, 0.00, 0.00, 0.00, 0.00, 0.25, -0.25, 0.25, 0.00, -0.25, -0.25, -0.25, 0.00, -0.50, 0.25, 0.25, 0.25, 0.25, -0.50, 0.00, 0.25, -0.25, -0.25, 0.25, 0.25, 0.00, 0.00, -0.25, 0.00, 0.00, 0.00, 0.00, 0.25, 0.25, 0.00, 0.00, 0.00, 0.00, 0.00, 0.25, 0.25, 0.00, -0.50, -0.25, 0.25, -0.25, 0.25, 0.25, 0.00, 0.25, -0.25, 0.25, 0.00, -0.25, 0.00, 0.25, 0.25, 0.00, 0.25, 0.00, 0.25, 0.00, 0.00, 0.00, 0.25, 0.00, 0.00, 0.00, 0.00, 0.00, 0.00, 0.00, 0.25, -0.25, -0.50, -0.25, 0.00, -0.25, 0.25, 0.25, 0.00, 0.25, -0.50, 0.25, 0.25, 0.00, 0.00, 0.00, 0.25, -0.25, -0.25, -0.25, 0.25, -0.25, 0.00, 0.25, 0.00, 0.25, -0.25, 0.00, 0.00, 0.00, -0.25, -0.25, 0.00, 0.00, 0.00, 0.00, 0.25, 0.00, 0.00, 0.00, 0.00, 0.00, 0.00, 0.00, 0.00, -0.25, -0.25, 0.25, 0.25, 0.00, 0.00, 0.25, 0.00, 0.00, 0.00, 0.00, 0.00, 0.00, 0.00, 0.00, -0.25, 0.00, 0.00, 0.25, 0.00, -0.25, -0.50, -0.25, 0.00, -0.50, 0.25, 0.25, 0.25, 0.25, -0.25, 0.00, 0.00, 0.00, 0.00, 0.00, 0.25, 0.00, 0.00, 0.00, 0.00, 0.00, 0.00, 0.25, 0.25, 0.00, 0.00, 0.00, -0.25, 0.00, -0.25, 0.00, 0.25, -0.25, -0.25, -0.25, 0.00, -0.25, 0.00, 0.25, 0.25, 0.25, -0.25, 0.00, 0.00, 0.00, 0.00, 0.25, 0.25, 0.00, -0.25, 0.00, 0.50, 0.00, 0.25, 0.00, 0.00, 0.00, -0.25, 0.25, 0.00, 0.00, 0.00, 0.25, 0.25, -0.25, -0.50, -0.25, 0.25, -0.50, 0.50, 0.25, 0.50, 0.25, -0.25, 0.00, 0.25, 0.25, 0.00, 0.25, 0.00, -0.25, -0.25, 0.00, 0.50, -0.25, 0.25, 0.25, 0.25, 0.25, -0.50, 0.00, 0.00, 0.00, 0.00, 0.00, 0.00, 0.25, 0.00, 0.00, 0.00, -0.25, 0.00, 0.00, 0.00, 0.00, -0.25, 0.00, 0.25, 0.00, 0.00, 0.00, 0.25, 0.00, 0.00, 0.00, 0.00, 0.00, 0.25, 0.25, 0.00, 0.25, 0.00, 0.00, 0.00, 0.25, 0.00, 0.25, 0.25, -0.25, -0.25, -0.25, 0.25, -0.75, 0.25, 0.25, 0.25, 0.25, -0.75, 0.00, 0.00, 0.00, 0.25, 0.00, 0.50, -0.25, 0.00, 0.00, 0.25, 0.00, 0.00, 0.00, 0.00, 0.25, 0.00, 0.00, 0.25, 0.25, 0.25, 0.25, 0.25, -0.25, -0.75, -0.25, 0.00, -0.50, 0.25, 0.25, 0.50, 0.25, -0.50, 0.25, 0.25, 0.25, 0.00, -0.25, 0.00, 0.25, -0.25, 0.00, 0.25, 0.00, 0.00, 0.25, -0.25, 0.00, -0.25, 0.00, 0.25, 0.25, 0.00, -0.25, 0.00, 0.00, -0.50, -0.50, 0.25, -0.50, 0.00, 0.25, -0.25, 0.00, -0.50, 0.25, 0.25, 0.25, 0.00, 0.00, 0.25, 0.00, -0.25, -0.25, 0.25, -0.25, -0.25, 0.25, -0.25, 0.00, -0.25, 0.25, 0.00, 0.00, 0.00, 0.00, 0.00, -0.25, 0.00, 0.00, -0.25, 0.00, 0.00, 0.00, 0.00, 0.00, 0.00, 0.00, 0.25, 0.50, 0.00, -0.25, 0.00, 0.25, 0.00, 0.00, 0.25, 0.00, -0.25, 0.00, 0.00, -0.25, 0.00, 0.00, 0.00, 0.25, 0.00, -0.25, 0.25, 0.25, -0.50, -0.25, 0.25, -0.50, 0.00, 0.25, -0.25, 0.00, -0.75, 0.00, 0.25, 0.75, 0.00, -0.25, 0.25, 0.25, -0.50, -0.25, 0.25, -0.25, 0.00, 0.25, -0.25, 0.00, -0.25, 0.25, 0.25, 0.25, -0.25, 0.00, 0.25, 0.00, -0.50, -0.25, 0.25, -0.50, 0.00, 0.25, 0.00, 0.25, -0.50, 0.25, 0.00, 0.25, 0.00, 0.00, 0.00, 0.00, -0.25, 0.00, 0.00, -0.25, 0.00, 0.00, 0.00, 0.00, -0.25, 0.00, 0.25, 0.50, 0.00, 0.00, 0.00, 0.00, -0.50, -0.25, 0.25, -0.25, 0.00, 0.00, -0.25, 0.00, -0.50, 0.00, 0.00, 0.00, 0.00, 0.00, 0.00, 0.00, -0.25, -0.25, 0.25, -0.25, 0.00, 0.25, 0.00, 0.00, -0.25, 0.00, 0.00, -0.25, 0.00, 0.00, 0.25, -0.25, 0.00, 0.00, 0.00, 0.00, 0.25, 0.00, 0.00, 0.00, -0.25, 0.00, 0.00, 0.00, -0.25, -0.25, -0.25, 0.25, 0.25, 0.00, 0.25, 0.00, 0.00, 0.00, -0.25, 0.00, 0.00, 0.00, 0.25, 0.50, -0.25, 0.00, 0.00, 0.25, -0.25, -0.50, 0.25, -0.25, 0.00, 0.25, 0.00, 0.00, -0.50, 0.25, 0.25, 0.25, 0.00, 0.00, 0.00, 0.25, 0.25, 0.00, 0.00, 0.00, 0.00, 0.00, 0.00, 0.00, 0.25, 0.00, 0.25, 0.25, -0.25, 0.00, 0.00, 0.00, -0.50, -0.25, 0.25, -0.50, 0.00, 0.25, 0.00, 0.00, -0.25, 0.00, 0.25, 0.25, 0.00, 0.00, 0.00, 0.25, 0.00, -0.25, 0.25, -0.25, 0.00, 0.00, 0.00, 0.00, -0.25, 0.00, 0.25, 0.00, 0.00, 0.00, 0.00, 0.00, -0.50, -0.25, 0.50, -0.25, 0.00, 0.25, -0.25, 0.25, -0.50, 0.00, 0.25, 0.25, -0.25, 0.00, 0.00, 0.00, -0.25, 0.00, 0.50, -0.50, 0.00, 0.00, -0.25, 0.00, -0.25, 0.00, 0.00, -0.25, 0.00, 0.25, 0.00, -0.25, 0.25, 0.00, 0.25, 0.00, 0.00, 0.00, 0.25, 0.00, 0.00, 0.25, 0.25, 0.00, 0.00, -0.25, 0.00, 0.00, 0.25, 0.00, 0.25, 0.00, -0.25, 0.00, 0.00, 0.00, 0.00, 0.00, 0.50, 0.25, -0.25, -0.25, 0.00, 0.00, -0.50, -0.25, 0.25, -0.50, 0.25, 0.25, 0.00, 0.00, -0.50, 0.00, 0.25, 0.00, 0.00, -0.25, 0.00, 0.00, -0.25, 0.00, 0.25, 0.00, 0.25, 0.00, -0.25, 0.00, 0.00, 0.00, 0.25, 0.25, 0.00, 0.00, 0.00, -0.25, -0.25, -0.25, 0.50, -0.50, 0.00, 0.25, -0.25, 0.00, -0.25, 0.00, 0.00, 0.00, 0.00, 0.00, 0.00, 0.00, -0.25, -0.25, 0.25, -0.25, 0.00, 0.00, 0.00, 0.00, 0.00, 0.25, 0.00, 0.00, 0.00, 0.25, 0.25, 0.00, -0.50, -0.25, 0.00, -0.50, 0.00, 0.25, 0.00, 0.25, -0.25, 0.25, 0.25, 0.00, 0.00, 0.00, 0.25, 0.00, -0.50, -0.25, 0.25, -0.25, 0.00, 0.00, -0.25, 0.50, -0.25, 0.00, 0.25, 0.25, -0.25, 0.00, 0.00, 0.00, 0.00, 0.00, 0.00, 0.00, 0.00, 0.25, 0.00, 0.00, 0.00, 0.00, 0.00, 0.00, 0.00, 0.25, 0.00, 0.00, 0.00, 0.00, 0.00, 0.00, -0.25, 0.00, 0.00, 0.00, 0.00, 0.00, 0.25, 0.25, 0.00, -0.25, 0.25, 0.00, -0.50, -0.25, 0.25, -0.50, 0.25, 0.25, -0.25, 0.00, -0.25, 0.00, 0.00, 0.00, 0.00, 0.00, 0.25, -0.25, 0.00, 0.00, 0.25, 0.00, 0.00, 0.00, 0.00, 0.00, 0.00, 0.00, 0.00, 0.25, -0.25, 0.00, 0.25, -0.25, -0.50, -0.25, 0.25, -0.25, 0.00, 0.25, -0.25, 0.25, -0.25, 0.00, 0.25, 0.00, 0.00, 0.25, 0.25, 0.00, 0.00, -0.25, 0.25, 0.00, 0.00, 0.25, 0.00, 0.00, 0.00, 0.00, 0.25, 0.00, -0.25, 0.25, 0.25, -0.25, -0.25, -0.50, 0.00, -0.50, 0.25, 0.25, 0.00, 0.25, -0.25, 0.25, 0.50, 0.00, 0.00, 0.00, 0.25, -0.25, -0.50, -0.25, 0.25, -0.25, 0.25, 0.00, 0.00, 0.25, -0.25, 0.25, 0.00, 0.00, -0.25, 0.00, 0.00, 0.00, 0.00, 0.00, 0.25, -0.25, 0.00, 0.25, 0.00, 0.00, 0.00, 0.25, 0.00, 0.00, 0.00, 0.00, 0.25, 0.25, 0.00, 0.25, 0.25, 0.00, 0.00, 0.00, 0.00, 0.25, 0.00, 0.00, 0.25, 0.25, 0.00, 0.25, 0.25, -0.25, -0.50, -0.50, 0.25, -0.25, 0.25, 0.00, 0.00, 0.25, -0.50, 0.00, -0.25, -0.25, 0.00, 0.25, 0.50, -0.25, 0.00, 0.00, -0.25, -0.25, 0.00, 0.25, -0.25, 0.25, -0.25, 0.00, 0.00, 0.00, 0.00, 0.25, 0.25, -0.25, -0.25, -0.25, 0.25, -0.50, 0.25, 0.25, 0.00, 0.25, -0.50, 0.00, 0.00, 0.25, 0.00, 0.00, 0.25, 0.00, -0.25, 0.00, 0.25, -0.25, 0.25, 0.25, 0.00, 0.00, -0.25, 0.00, 0.00, 0.25, 0.00, 0.25, 0.00, -0.25, -0.25, -0.25, 0.25, -0.50, 0.25, 0.25, 0.25, 0.00, -0.25, 0.25, 0.25, 0.00, 0.00, 0.00, 0.25, 0.00, -0.25, -0.25, 0.00, -0.25, 0.25, 0.25, 0.25, 0.00, -0.25, 0.25, 0.00, 0.00, 0.00, 0.00, 0.00, 0.00, 0.00, 0.00, 0.00, 0.00, 0.00, 0.00, 0.00, -0.25, -0.25, 0.00, 0.00, 0.00, 0.00, 0.25, 0.00, 0.00, 0.00, 0.00, 0.00, 0.00, 0.00, 0.00, 0.00, 0.25, 0.00, 0.00, 0.25, 0.25, 0.00, 0.00, 0.00, -0.50, -0.50, -0.25, 0.25, -0.25, 0.50, 0.25, 0.00, 0.25, -0.50, 0.00, 0.00, 0.00, 0.00, 0.25, 0.25, 0.00, 0.00, 0.00, 0.25, 0.00, 0.25, 0.00, 0.00, 0.25, 0.00, 0.25, 0.00, 0.00, 0.00, 0.25, 0.25, -0.25, -0.50, -0.25, 0.25, -0.25, 0.25, 0.50, 0.00, 0.25, -0.25, 0.25, 0.00, 0.25, 0.00, 0.00, 0.25, 0.00, -0.25, 0.25, 0.25, 0.00, 0.25, 0.50, 0.25, 0.25, 0.00, 0.25, 0.25, 0.00, 0.00, 0.00, 0.00, -0.50, -0.50, 0.00, 0.25, -0.25, 0.25, 0.25, 0.25, 0.25, -0.50, 0.25, 0.50, 0.50, 0.00, 0.25, 0.25, -0.25, -0.50, 0.25, 0.00, -0.50, 0.25, 0.75, 0.50, 0.25, -0.25, 0.00, 0.00, 0.00, -0.25, 0.00, 0.00, -0.25, 0.00, 0.00, 0.00, 0.00, 0.00, 0.00, 0.00, 0.00, -0.25, 0.00, 0.00, 0.25, 0.00, 0.25, 0.00, 0.25, 0.00, 0.25, 0.25, 0.00, 0.25, 0.25, 0.25, 0.00, -0.25, 0.25, 0.25, 0.25, 0.00, 0.00, 0.00, -0.25, -0.75, 0.00, 0.25, -0.50, 0.50, 0.25, 0.25, 0.00, -0.50, 0.00, 0.25, -0.25, 0.00, 0.00, 0.25, 0.00, 0.00, 0.00, 0.00, 0.00, 0.00, 0.25, 0.25, 0.25, 0.00, 0.00, 0.25, 0.25, 0.00, 0.25, 0.25, -0.25, -0.50, 0.00, 0.25, -0.50, 0.25, 0.25, 0.25, 0.25, -0.50, 0.00, 0.00, 0.00, 0.00, -0.25, 0.00, 0.25, 0.00, -0.25, -0.25, 0.00, -0.25, 0.00, -0.25, -0.25, 0.00, 0.00, 0.00, 0.00, 0.00, -0.25, 0.00, 0.25, -0.25, -0.50, 0.25, 0.25, -0.25, 0.00, -0.25, 0.00, -0.25, -0.25, 0.00, 0.00, 0.00, 0.00, 0.00, 0.00, 0.00, -0.25, -0.25, 0.25, -0.25, 0.00, 0.00, 0.00, 0.00, 0.25, 0.00, -0.25, 0.00, 0.00, 0.00, 0.00, 0.00, 0.00, 0.25, 0.00, 0.00, 0.00, 0.00, 0.00, 0.00, 0.00, -0.25, 0.00, 0.00, 0.00, -0.25, 0.25, 0.00, 0.00, 0.00, 0.00, 0.00, 0.00, -0.25, 0.00, 0.00, -0.25, 0.00, 0.00, 0.00, -0.25, 0.00, 0.25, -0.25, -0.25, 0.00, 0.25, -0.25, 0.00, -0.25, 0.00, -0.50, 0.25, 0.00, 0.25, 0.00, 0.00, 0.00, 0.25, -0.25, -0.25, 0.25, 0.00, -0.25, 0.00, -0.25, 0.00, -0.25, 0.00, 0.00, -0.25, -0.25, -0.25, 0.25, 0.25, -0.50, -0.25, 0.00, 0.25, -0.25, 0.00, -0.25, 0.00, -0.25, 0.00, 0.25, 0.00, -0.25, 0.00, 0.00, 0.00, 0.25, -0.25, -0.25, 0.00, 0.00, 0.00, 0.00, -0.25, 0.00, 0.00, 0.00, -0.25, 0.00, -0.25, 0.00, 0.25, -0.25, -0.25, 0.00, 0.00, 0.00, 0.00, -0.25, 0.00, 0.00, 0.00, 0.00, -0.25, 0.00, -0.25, 0.00, 0.25, 0.25, 0.00, -0.25, 0.25, -0.25, 0.00, -0.25, 0.00, 0.25, 0.00, 0.25, 0.00, 0.00, 0.00, 0.00, 0.00, 0.00, 0.00, 0.00, 0.00, 0.00, 0.00, 0.00, 0.00, 0.00, 0.25, 0.00, 0.00, 0.00, 0.00, 0.00, 0.00, 0.00, 0.00, 0.00, 0.00, 0.00, -0.25, 0.00, -0.25, 0.25, 0.00, -0.25, 0.00, 0.25, -0.25, 0.00, 0.25, -0.25, -0.25, -0.25, 0.25, -0.25, -0.25, -0.25, 0.00, 0.25, 0.00, 0.25, 0.00, 0.00, -0.25, 0.00, 0.00, -0.25, 0.00, 0.00, 0.00, 0.00, 0.00, -0.25, 0.00, 0.00, 0.00, -0.25, -0.25, 0.00, -0.25, 0.00, 0.25, -0.25, -0.25, 0.00, 0.25, -0.25, -0.25, -0.25, 0.00, -0.25, 0.00, 0.00, 0.00, 0.00, -0.25, 0.00, -0.25, 0.25, -0.25, -0.25, 0.00, 0.00, 0.00, 0.00, 0.00, 0.25, 0.25, 0.00, 0.00, -0.25, 0.00, 0.00, 0.25, -0.25, -0.25, -0.25, 0.00, -0.25, 0.00, -0.25, 0.00, 0.25, 0.00, 0.00, -0.25, -0.25, 0.00, 0.00, -0.25, 0.00, 0.00, 0.00, 0.25, -0.25, 0.00, 0.00, 0.00, 0.25, 0.00, 0.00, 0.00, -0.25, 0.00, 0.25, 0.00, 0.00, 0.00, 0.00, 0.00, 0.00, 0.00, 0.00, 0.00, 0.00, 0.00, 0.00, 0.00, 0.00, -0.25, 0.25, 0.00, 0.00, 0.00, -0.25, 0.00, 0.00, 0.00, 0.00, 0.25, 0.00, 0.00, 0.25, 0.00, 0.00, 0.00, 0.00, 0.00, -0.25, -0.50, 0.00, -0.25, -0.25, 0.25, 0.00, 0.00, 0.25, 0.00, 0.00, 0.00, 0.00, -0.25, 0.00, 0.25, -0.25, 0.00, 0.25, 0.00, 0.00, 0.00, -0.25, 0.00, -0.25, 0.00, 0.00, 0.00, 0.25, 0.00, 0.25, 0.00, -0.50, -0.25, -0.25, 0.00, -0.25, 0.00, -0.25, 0.00, 0.00, 0.00, 0.00, -0.50, 0.00, 0.00, 0.25, -0.25, 0.25, 0.25, -0.25, 0.00, 0.00, -0.25, 0.00, 0.00, 0.00, 0.25, 0.25, 0.00, -0.25, 0.00, 0.25, -0.25, -0.25, -0.25, 0.00, -0.25, 0.00, 0.00, 0.00, 0.00, 0.25, 0.00, 0.00, -0.25, 0.00, 0.00, 0.00, -0.25, 0.25, 0.00, -0.25, -0.25, 0.00, 0.00, 0.00, 0.25, 0.25, 0.25, 0.00, 0.00, -0.25, 0.00, 0.00, 0.00, 0.25, 0.00, 0.00, 0.00, 0.00, 0.25, 0.25, 0.00, 0.00, 0.25, 0.00, 0.00, 0.00, 0.00, 0.25, 0.00, 0.00, 0.00, 0.00, 0.00, 0.00, 0.00, 0.00, 0.00, -0.25, 0.25, 0.00, -0.25, -0.25, 0.00, 0.00, -0.25, -0.25, -0.25, 0.00, -0.25, -0.25, 0.00, -0.25, 0.25, 0.25, 0.00, 0.00, 0.25, 0.00, 0.00, 0.25, 0.00, 0.00, 0.00, 0.00, 0.00, 0.00, 0.00, 0.00, 0.00, 0.00, 0.00, 0.00, 0.00, 0.00, 0.25, 0.25, -0.25, -0.25, -0.25, 0.00, -0.50, -0.25, 0.25, 0.00, 0.00, 0.25, 0.25, 0.00, -0.25, 0.00, 0.00, 0.00, -0.25, 0.00, 0.25, 0.00, -0.25, 0.00, 0.00, 0.25, 0.00, 0.00, 0.00, 0.00, 0.25, 0.00, 0.25, -0.25, -0.50, -0.25, 0.25, 0.00, -0.25, 0.00, 0.00, -0.25, 0.25, 0.25, 0.25, -0.25, 0.00, 0.00, 0.00, 0.00, -0.25, 0.25, 0.25, -0.25, -0.25, -0.25, -0.25, 0.25, 0.25, 0.50, 0.00, 0.00, 0.00, 0.00, 0.00, 0.00, 0.00, 0.00, 0.00, 0.00, 0.00, 0.00, 0.00, 0.25, 0.00, -0.25, 0.00, 0.00, -0.25, -0.25, 0.25, 0.00, 0.00, 0.00, 0.00, 0.00, 0.00, 0.00, 0.00, 0.25, 0.00, 0.00, 0.00, 0.00, 0.00, 0.00, 0.00, -0.25, -0.25, -0.25, 0.00, 0.00, -0.50, 0.00, 0.00, 0.00, 0.25, 0.25, 0.00, 0.00, 0.00, 0.00, 0.25, 0.25, 0.00, 0.00, 0.00, 0.25, 0.00, 0.25, 0.00, 0.00, 0.25, 0.25, 0.00, -0.25, 0.25, 0.00, 0.25, 0.00, -0.25, -0.25, 0.00, 0.00, -0.50, 0.00, 0.00, 0.00, 0.00, 0.25, 0.25, -0.25, -0.25, 0.00, 0.00, 0.00, 0.00, 0.25, 0.00, -0.25, 0.00, 0.00, 0.00, 0.25, 0.00, 0.00, 0.25, 0.00, 0.00, 0.00, 0.00, 0.00, -0.25, 0.00, 0.25, 0.00, -0.25, 0.00, -0.25, 0.00, 0.25, 0.25, 0.00, 0.00, 0.00, 0.00, 0.00, 0.00, 0.00, 0.25, 0.00, 0.00, -0.50, -0.25, 0.00, 0.25, 0.25, 0.25, 0.25, 0.00, 0.25, 0.00, 0.00, 0.00, 0.00, 0.00, 0.00, -0.25, 0.00, 0.00, 0.25, 0.00, 0.00, 0.00, 0.25, 0.00, 0.00, 0.00, 0.25, 0.25, 0.00, 0.00, 0.25, 0.00, 0.00, 0.00, 0.25, 0.25, 0.00, 0.00, 0.25, -0.25, 0.00, 0.00, 0.25, -0.25, -0.25, -0.25, 0.25, 0.00, -0.50, 0.00, 0.00, 0.25, 0.00, 0.00, 0.00, 0.00, 0.00, 0.00, 0.00, 0.00, 0.25, 0.00, 0.25, 0.00, 0.00, 0.00, 0.00, 0.00, 0.00, 0.00, 0.00, 0.25, 0.00, 0.00, 0.00, 0.00, -0.25, -0.25, 0.25, 0.00, -0.25, 0.25, 0.25, 0.00, 0.00, 0.00, 0.00, -0.25, 0.00, 0.00, 0.25, 0.25, 0.00, 0.25, 0.25, 0.00, -0.25, 0.25, 0.00, 0.00, 0.25, 0.25, 0.00, 0.00, -0.25, 0.00, 0.00, 0.00, -0.25, -0.25, 0.25, 0.00, -0.25, 0.25, -0.25, 0.25, 0.25, 0.00, 0.00, 0.00, 0.00, 0.00, 0.25, 0.00, -0.25, 0.00, 0.25, -0.25, -0.25, 0.25, -0.25, 0.25, 0.00, 0.50, 0.25, 0.00, 0.25, 0.00, 0.00, 0.00, 0.00, 0.00, 0.00, 0.25, 0.00, 0.00, 0.00, 0.00, 0.00, 0.00, 0.00, 0.00, 0.00, 0.00, 0.25, 0.25, 0.00, 0.00, 0.00, 0.00, 0.00, 0.25, 0.25, 0.00, 0.00, 0.00, 0.00, 0.00, 0.25, 0.00, 0.00, -0.25, -0.25, -0.25, 0.50, -0.25, -0.50, 0.00, -0.25, 0.50, 0.00, 0.25, 0.00, 0.00, 0.00, 0.00, 0.00, 0.25, 0.00, 0.00, 0.25, 0.00, 0.25, 0.00, 0.25, 0.00, 0.00, 0.00, 0.25, 0.25, 0.00, 0.00, 0.00, 0.00, 0.00, -0.25, 0.50, 0.00, -0.50, 0.25, 0.00, 0.25, 0.00, 0.25, 0.25, 0.25, 0.00, 0.00, 0.00, 0.00, 0.00, 0.25, 0.00, -0.25, 0.25, -0.25, 0.00, -0.25, 0.00, 0.25, 0.00, -0.25, -0.25, 0.25, 0.00, -0.25, 0.25, 0.50, -0.25, -0.25, 0.50, -0.50, -0.25, -0.25, -0.25, 0.75, 0.00, 0.00, 0.25, 0.00, 0.00, 0.00, 0.50, 0.25, 0.00, 0.00, 0.25, 0.00, 0.25, -0.25, 0.00, 0.50, 0.25, 0.25, 0.25, 0.00, 0.25, 0.00, 0.00, 0.00, 0.00, 0.00, 0.00, 0.00, 0.25, 0.00, 0.00, 0.00, 0.25, 0.00, 0.00, 0.00, -0.25, 0.00, 0.25, -0.25, -0.25, -0.25, 0.00, 0.00, 0.00, -0.25, 0.00, -0.25, 0.00, 0.00, -0.25, 0.00, -0.25, -0.25, 0.25, 0.75, 0.00, 0.00, 0.75, -0.25, -0.25, -0.25, 0.00, 0.50, 0.00, -0.25, -0.25, -0.25, 0.00, -0.25, 0.00, 0.50, 0.00, -0.25, 0.25, -0.25, -0.25, -0.25, -0.25, 0.25, -0.25, -0.25, -0.25, 0.00, 0.00, -0.25, 0.25, 0.75, -0.25, -0.25, 0.25, -0.25, -0.25, -0.25, -0.25, 0.25, 0.25, 0.25, 0.25, 0.00, -0.25, 0.00, 0.00, -0.25, 0.00, 0.00, 0.00, 0.00, 0.00, 0.00, 0.00, 0.00, 0.00, -0.25, -0.25, 0.00, 0.00, 0.00, 0.25, 0.25, -0.25, 0.00, 0.25, 0.00, -0.25, -0.25, -0.25, 0.50, 0.25, 0.00, 0.25, 0.00, 0.00, 0.00, 0.25, 0.25, 0.00, 0.00, 0.25, 0.00, 0.00, 0.00, 0.00, 0.25, 0.25, 0.00, 0.00, 0.00, 0.00, 0.00, 0.25, 0.00, 0.00, 0.00, 0.00, 0.25, 0.25, 0.00, 0.00, 0.00, 0.00, 0.25, 0.25, 0.00, -0.25, 0.00, 0.00, 0.00, -0.25, -0.25, 0.00, 0.00, 0.25, 0.00, -0.25, 0.00, 0.00, -0.25, -0.25, 0.00, 0.00, 0.00, 0.00, 0.25, 0.00, 0.00, 0.25, -0.25, -0.25, 0.00, 0.00, 0.75, 0.00, 0.00, 0.00, 0.00, 0.00, 0.00, 0.00, 0.25, 0.00, 0.00, 0.25, 0.00, 0.00, 0.00, 0.00, -0.25, 0.00, -0.25, 0.00, 0.00, -0.25, -0.25, 0.25, 0.50, -0.25, -0.25, 0.25, -0.25, -0.25, 0.00, -0.25, 0.50, 0.25, 0.00, 0.00, 0.00, 0.00, 0.00, 0.00, 0.00, 0.00, 0.25, 0.00, 0.00, 0.00, 0.00, 0.25, 0.00, 0.00, 0.25, -0.25, 0.00, -0.25, 0.00, 0.00, 0.50, 0.00, -0.25, 0.50, -0.25, -0.25, -0.25, 0.00, 0.50, 0.00, 0.00, 0.25, 0.00, -0.25, 0.25, 0.25, 0.00, 0.00, 0.00, 0.50, -0.25, 0.25, 0.00, -0.25, 0.25, 0.25, 0.00, 0.00, 0.00, 0.00, 0.00, 0.00, 0.00, 0.00, 0.25, 0.25, 0.00, 0.25, 0.00, 0.00, 0.25, 0.25, 0.00, 0.25, 0.00, 0.00, 0.00, 0.00, 0.00, 0.00, 0.00, 0.00, 0.00, 0.00, 0.00, 0.00, -0.25, 0.00, 0.00, -0.25, 0.25, 0.00, 0.00, 0.00, 0.50, 0.00, -0.25, 0.50, -0.25, -0.25, -0.25, -0.25, 0.50, 0.25, -0.25, 0.25, -0.25, 0.00, 0.25, 0.25, 0.00, 0.00, 0.00, 0.25, 0.00, 0.25, 0.00, -0.25, 0.00, 0.00, 0.00, 0.00, 0.00, -0.25, 0.00, 0.00, 0.50, 0.00, -0.25, 0.50, -0.25, 0.00, -0.25, 0.00, 0.25, 0.00, 0.25, 0.00, 0.00, 0.00, 0.25, 0.25, 0.00, 0.00, 0.00, 0.00, 0.00, 0.00, -0.25, 0.25, 0.25, 0.00, 0.25, -0.50, 0.00, 0.25, 0.00, -0.25, 0.50, 0.50, -0.25, 0.25, -0.25, -0.25, -0.25, -0.25, 0.50, 0.00, 0.00, 0.25, 0.00, 0.00, 0.25, 0.00, 0.25, 0.00, 0.00, 0.25, 0.00, 0.25, -0.25, 0.00, 0.25, 0.25, 0.25, 0.00, -0.25, 0.25, 0.00, 0.25, 0.00, 0.00, 0.00, 0.25, 0.00, 0.25, 0.00, 0.25, 0.00, 0.25, 0.00, 0.00, 0.00, 0.00, 0.25, 0.00, -0.25, 0.00, 0.25, 0.00, 0.00, 0.00, 0.00, 0.00, 0.00, 0.00, 0.25, -0.25, 0.00, 0.00, 0.00, -0.25, 0.25, 0.25, -0.25, 0.50, 0.00, 0.00, -0.50, 0.00, 0.50, 0.00, 0.25, 0.00, -0.25, 0.00, 0.25, -0.25, 0.25, 0.25, 0.00, 0.25, 0.00, 0.00, -0.25, 0.00, 0.25, 0.00, 0.00, -0.25, 0.00, 0.25, 0.00, 0.00, 0.50, 0.25, 0.00, 0.25, -0.25, -0.25, -0.25, -0.25, 0.25, 0.25, 0.25, 0.00, 0.00, 0.00, 0.00, 0.00, 0.00, 0.25, 0.25, 0.25, 0.25, 0.00, 0.25, 0.00, 0.25, 0.00, 0.00, 0.00, 0.00, 0.00, 0.00, -0.25, 0.50, 0.50, -0.25, 0.00, -0.25, 0.00, 0.00, 0.00, 0.50, 0.25, 0.25, 0.00, 0.00, 0.25, 0.00, 0.00, 0.25, 0.00, 0.00, 0.00, -0.25, 0.00, 0.00, 0.25, 0.25, 0.25, 0.00, 0.00, 0.00, 0.00, 0.00, 0.00, 0.00, 0.00, 0.00, 0.00, 0.25, 0.00, 0.00, 0.00, 0.25, 0.00, 0.00, 0.00, -0.25, 0.25, 0.00, 0.00, 0.00, 0.00, 0.00, 0.00, 0.00, 0.25, 0.00, 0.00, 0.00, 0.00, 0.00, -0.25, 0.00, 0.00, 0.00, -0.25, 0.50, 0.50, -0.25, 0.00, -0.25, -0.25, 0.00, 0.00, 0.50, 0.00, 0.00, -0.25, -0.25, 0.25, 0.00, -0.25, 0.00, 0.00, 0.00, 0.00, 0.00, 0.25, 0.00, 0.00, 0.25, 0.00, -0.25, -0.25, 0.00, 0.25, 0.00, -0.25, 0.50, 0.25, -0.25, 0.00, -0.25, -0.25, 0.00, 0.25, 0.25, 0.00, 0.25, 0.00, 0.00, 0.00, 0.00, -0.25, 0.00, 0.00, 0.25, 0.00, 0.00, 0.25, 0.00, 0.00, 0.25, 0.00, 0.00, -0.25, 0.00, 0.00, 0.25, -0.25, 0.25, 0.25, -0.25, 0.25, -0.25, -0.25, 0.25, 0.25, 0.25, 0.00, -0.25, 0.00, -0.25, 0.25, 0.25, 0.00, 0.25, 0.25, 0.00, 0.25, 0.00, 0.00, 0.25, 0.25, 0.00, 0.25, 0.00, 0.00, -0.25, 0.00, 0.00, 0.00, 0.00, 0.00, 0.25, 0.00, 0.00, 0.00, 0.00, 0.00, 0.25, 0.25, 0.00, -0.25, 0.00, 0.25, 0.25, -0.25, 0.00, 0.00, 0.00, 0.25, 0.00, 0.00, 0.00, 0.25, 0.00, 0.25, 0.00, -0.25, 0.00, 0.25, 0.00, -0.25, 0.25, 0.25, 0.00, 0.25, -0.25, -0.25, 0.00, 0.50, 0.50, 0.00, 0.00, 0.00, -0.25, 0.00, 0.25, 0.00, 0.25, 0.25, 0.00, 0.25, 0.00, 0.25, 0.00, 0.25, 0.25, 0.00, 0.00, 0.00, 0.25, 0.25, 0.00, -0.25, 0.50, 0.25, 0.00, 0.00, -0.25, -0.25, 0.25, 0.25, 0.25, 0.00, -0.25, -0.25, 0.00, 0.25, 0.25, -0.25, 0.00, 0.25, -0.25, 0.00, 0.00, 0.25, 0.25, 0.00, 0.00, 0.25, 0.00, -0.50, 0.00, 0.25, 0.00, -0.25, 0.50, 0.50, -0.25, 0.25, 0.00, -0.25, 0.25, 0.25, 0.50, 0.00, -0.25, -0.50, 0.00, 0.25, 0.00, 0.00, 0.50, 0.50, -0.25, 0.25, -0.25, 0.00, 0.25, 0.25, 0.50, 0.25, 0.25, 0.00, 0.00, 0.00, 0.00, 0.00, 0.00, 0.00, 0.00, 0.00, 0.00, 0.00, 0.00, 0.00, 0.00, 0.25, -0.25, -0.25, 0.00, 0.25, 0.00, -0.25, 0.00, 0.25, 0.00, 0.00, 0.00, 0.00, 0.25, 0.00, 0.00, 0.00, 0.00, -0.25, -0.25, 0.00, -0.25, -0.25, 0.75, 0.25, 0.00, 0.25, 0.00, -0.25, 0.00, 0.25, 0.50, 0.00, 0.00, 0.00, 0.00, 0.00, 0.00, -0.25, 0.00, 0.00, 0.00, 0.00, 0.00, 0.25, 0.00, 0.00, 0.00, 0.00, 0.00, -0.25, 0.00, 0.25, -0.25, -0.25, 0.50, 0.25, -0.25, 0.00, 0.00, -0.25, 0.25, 0.00, 0.50, 0.00, 0.25, 0.00, 0.00, -0.25, 0.00, 0.25, 0.25, 0.00, 0.00, 0.25, 0.00, 0.00, 0.00, -0.25, 0.25, 0.00, 0.25, -0.25, 0.00, -0.25, 0.25, 0.25, 0.50, 0.00, -0.25, 0.50, -0.25, -0.25, -0.25, 0.00, 0.50, 0.25, 0.25, -0.25, 0.00, -0.25, 0.00, 0.50, 0.00, 0.00, 0.00, 0.25, 0.00, 0.00, -0.25, 0.00, 0.25, 0.00, 0.00, 0.00, 0.00, 0.25, 0.25, 0.00, 0.00, 0.25, 0.25, 0.25, 0.00, 0.00, 0.00, 0.25, 0.25, 0.00, 0.00, 0.00, 0.00, 0.00, 0.00, 0.25, 0.00, 0.00, -0.25, 0.00, 0.00, 0.00, 0.00, -0.25, -0.25, 0.00, 0.25, -0.50, 0.00, 0.00, 0.00, 0.50, 0.50, 0.25, -0.25, 0.75, -0.25, -0.25, -0.25, 0.00, 0.50, 0.00, 0.25, -0.50, 0.00, 0.00, -0.25, 0.25, 0.50, 0.00, -0.50, 0.50, -0.25, -0.25, -0.25, -0.25, 0.25, 0.00, 0.25, -0.25, -0.25, -0.25, 0.00, 0.25, 0.50, 0.25, -0.25, 0.50, -0.25, -0.25, -0.50, -0.25, 0.50, 0.00, 0.25, 0.00, 0.00, 0.00, 0.25, 0.00, 0.25, 0.00, 0.25, 0.25, 0.00, 0.25, 0.00, 0.00, 0.00, 0.00, 0.25, -0.25, 0.00, -0.25, 0.00, 0.25, 0.25, 0.00, 0.00, 0.25, -0.25, 0.00, -0.25, 0.00, 0.50, 0.25, 0.00, 0.00, 0.00, 0.00, 0.00, 0.25, 0.50, 0.25, 0.00, 0.25, -0.25, 0.00, -0.25, 0.00, 0.25, 0.00, 0.00, 0.00, 0.00, 0.00, 0.00, 0.00, 0.25, 0.25, 0.00, 0.25, 0.25, 0.00, 0.00, 0.00, 0.25, 0.00, 0.25, 0.25, 0.00, 0.00, 0.00, 0.00, 0.00, 0.00, 0.00, 0.00, 0.00, 0.00, -0.25, 0.00, 0.00, 0.25, 0.25, -0.25, 0.00, -0.25, 0.00, 0.25, 0.25, 0.00, 0.00, 0.25, -0.25, -0.25, -0.25, -0.25, 0.25, 0.00, 0.25, 0.25, 0.00, -0.25, 0.00, 0.00, 0.00, 0.00, 0.00, 0.00, 0.00, 0.00, 0.00, 0.00, -0.25, 0.00, 0.25, -0.25, 0.00, 0.00, -0.25, 0.25, 0.25, -0.25, -0.25, 0.25, -0.25, 0.00, -0.25, -0.25, 0.25, 0.00, 0.00, 0.25, 0.00, 0.00, 0.00, 0.25, 0.25, 0.00, 0.00, 0.25, -0.25, 0.00, -0.25, -0.25, 0.25, 0.00, 0.00, -0.25, 0.00, 0.00, 0.00, 0.25, 0.25, 0.25, 0.00, 0.50, -0.25, 0.00, -0.25, -0.25, 0.50, 0.00, 0.25, 0.00, 0.00, 0.00, 0.00, 0.25, 0.25, 0.25, 0.00, 0.25, 0.00, 0.00, 0.00, 0.00, 0.25, 0.25, 0.00, 0.00, 0.00, 0.25, 0.00, 0.00, 0.00, 0.00, 0.00, 0.00, 0.00, 0.00, 0.25, 0.00, 0.00, 0.25, 0.00, 0.25, 0.00, -0.25, 0.25, 0.00, 0.00, 0.00, 0.00, 0.00, 0.00, 0.00, 0.00, 0.00, 0.00, 0.00, 0.00, 0.00, 0.00, -0.25, 0.00, 0.25, 0.50, 0.00, 0.00, 0.50, -0.25, -0.25, -0.25, 0.00, 0.50, 0.00, 0.00, 0.00, 0.00, -0.25, 0.00, 0.00, 0.00, 0.00, 0.25, 0.00, 0.00, 0.00, 0.00, 0.00, 0.00, 0.00, 0.25, 0.00, 0.00, 0.00, 0.00, 0.25, 0.25, 0.00, 0.00, 0.25, -0.25, -0.25, -0.25, 0.00, 0.25, 0.25, 0.25, 0.00, 0.00, 0.25, 0.25, 0.25, 0.00, 0.25, 0.00, 0.00, -0.25, 0.00, 0.00, 0.00, 0.00, 0.00, 0.25, -0.25, -0.25, -0.25, 0.25, 0.25, 0.25, 0.25, 0.00, 0.50, -0.25, 0.00, -0.25, 0.00, 0.25, 0.00, 0.00, 0.00, 0.00, 0.00, 0.00, 0.00, 0.50, 0.25, 0.00, 0.25, -0.25, 0.00, -0.25, 0.00, 0.50, 0.00, 0.00, 0.25, -0.25, 0.00, 0.00, 0.25, 0.00, 0.00, 0.00, 0.00, 0.25, 0.00, 0.25, 0.00, 0.00, 0.00, 0.00, 0.00, 0.00, 0.00, 0.25, 0.00, 0.00, 0.00, 0.25, 0.00, 0.00, 0.00, 0.00, 0.25, 0.00, 0.00, 0.25, -0.25, -0.25, 0.00, 0.00, 0.00, 0.25, 0.25, -0.25, 0.25, -0.50, 0.00, -0.25, -0.25, 0.25, 0.00, 0.00, 0.00, 0.00, -0.25, 0.00, 0.00, 0.25, 0.25, 0.00, 0.00, 0.00, 0.00, -0.25, 0.00, 0.25, 0.25, 0.25, 0.00, 0.00, 0.00, -0.25, 0.00, 0.25, 0.25, 0.00, 0.50, 0.00, 0.00, -0.50, -0.25, 0.25, 0.25, 0.00, 0.00, 0.00, 0.25, 0.00, 0.25, 0.00, 0.00, 0.00, 0.25, 0.00, 0.00, -0.25, 0.00, 0.25, 0.25, 0.25, -0.25, 0.25, 0.25, 0.00, -0.25, 0.50, 0.25, 0.00, 0.50, -0.25, 0.00, -0.25, 0.00, 0.25, 0.25, 0.25, 0.00, 0.00, 0.25, 0.00, 0.00, 0.50, 0.25, -0.25, 0.25, -0.25, 0.00, 0.00, -0.25, 0.25, 0.25, 0.00, 0.00, 0.00, 0.00, 0.00, -0.25, 0.00, 0.00, 0.00, 0.25, 0.00, 0.25, 0.00, 0.00, 0.00, 0.25, 0.00, 0.25, 0.00, 0.25, 0.25, 0.00, 0.00, 0.00, 0.25, 0.00, 0.25, 0.00, 0.25, 0.00, 0.00, 0.00, 0.25, -0.25, 0.00, 0.25, 0.00, 0.00, 0.50, 0.25, -0.25, 0.50, -0.25, -0.25, 0.00, 0.00, 0.50, 0.25, 0.25, 0.00, 0.00, 0.25, 0.25, 0.00, 0.00, 0.00, 0.00, 0.25, 0.00, 0.00, 0.00, 0.00, 0.25, 0.00, 0.25, -0.25, 0.00, 0.00, 0.25, 0.00, 0.25, 0.25, -0.25, 0.25, -0.25, -0.25, 0.00, 0.00, 0.25, 0.00, 0.00, 0.25, 0.00, 0.00, 0.00, 0.00, 0.25, 0.25, 0.25, 0.25, 0.00, 0.00, 0.25, 0.00, 0.00, 0.00, 0.00, 0.00, 0.00, 0.25, 0.00, -0.25, 0.25, 0.25, 0.00, 0.25, -0.25, -0.25, 0.25, 0.25, 0.25, 0.00, 0.00, 0.00, 0.00, 0.25, 0.25, 0.00, 0.25, 0.00, 0.25, 0.25, 0.00, 0.25, 0.25, 0.25, 0.25, 0.25, 0.00, 0.00, 0.00, 0.00, 0.00, 0.00, 0.00, 0.00, 0.00, 0.00, 0.00, 0.00, -0.25, 0.00, 0.00, 0.00, 0.00, -0.25, 0.00, 0.00, 0.50, -0.25, 0.00, 0.00, 0.25, 0.00, 0.25, 0.00, 0.00, 0.00, 0.00, 0.00, 0.25, -0.25, 0.00, 0.00, 0.00, 0.00, 0.25, 0.50, 0.00, 0.50, -0.25, -0.25, 0.25, 0.25, 0.25, 0.00, 0.25, 0.00, 0.00, 0.00, 0.00, 0.00, 0.00, 0.25, 0.00, 0.25, 0.00, 0.00, 0.00, 0.00, 0.25, 0.00, 0.00, 0.00, 0.00, 0.25, 0.00, -0.25, 0.25, 0.00, 0.00, 0.25, -0.25, -0.25, 0.25, 0.25, 0.25, 0.00, 0.25, -0.25, 0.00, 0.25, 0.00, -0.25, 0.25, 0.25, -0.25, 0.25, 0.25, 0.00, 0.00, 0.00, 0.25, 0.25, 0.25, -0.25, 0.00, 0.25, 0.00, 0.00, 0.25, 0.25, 0.00, 0.50, 0.00, 0.00, 0.25, 0.00, 0.50, 0.00, 0.25, -0.50, 0.00, 0.25, 0.00, -0.25, 0.50, 0.50, -0.25, 0.25, 0.00, -0.25, 0.25, 0.00, 0.25, 0.25, 0.00, 0.00, -0.25, 0.00, 0.00, 0.00, 0.00, 0.00, 0.00, 0.00, 0.00, 0.00, 0.00, 0.00, 0.25, 0.25, 0.00, -0.50, 0.00, 0.25, 0.25, -0.25, 0.00, 0.00, -0.25, 0.25, 0.25, 0.00, 0.25, 0.00, 0.00, 0.00, 0.00, -0.50, 0.00, 0.25, -0.25, 0.00, 0.25, 0.50, -0.25, 0.50, 0.00, 0.00, 0.25, 0.25, 0.50, 0.25, 0.25, 0.00, 0.00, 0.25, 0.25, -0.25, 0.00, 0.00, 0.25, 0.25, 0.00, 0.00, 0.00, 0.25, 0.00, 0.25, 0.00, -0.25, 0.00, 0.25, 0.00, 0.00, 0.75, 0.25, -0.25, 0.50, -0.25, 0.00, 0.50, 0.00, 0.50, 0.00, 0.25, 0.25, -0.25, 0.00, 0.00, 0.25, 0.00, 0.00, 0.00, 0.50, -0.25, 0.00, -0.25, -0.25, 0.25, 0.00, 0.25, 0.00, 0.00, -0.25, -0.25, 0.50, 0.50, 0.25, 0.00, 0.50, -0.50, -0.50, -0.25, -0.25, 0.75, 0.25, 0.25, 0.00, 0.00, -0.25, 0.00, 0.00, 0.25, 0.00, 0.00, 0.25, -0.25, 0.00, -0.25, 0.00, 0.25, 0.00, 0.00, 0.00, 0.00, 0.00, 0.25, 0.00, 0.00, 0.00, 0.00, 0.00, 0.00, 0.00, 0.00, 0.00, 0.00, 0.25, 0.00, 0.25, 0.00, -0.25, 0.25, 0.25, 0.00, 0.00, 0.25, 0.00, -0.25, -0.25, -0.25, -0.25, 0.25, 0.00, 0.50, 0.00, 0.00, 0.00, -0.25, 0.50, 0.50, 0.25, -0.25, 0.50, -0.50, -0.25, -0.25, -0.25, 0.25, 0.00, 0.00, 0.00, 0.00, 0.00, -0.25, 0.25, 0.50, 0.00, -0.25, 0.25, -0.25, -0.25, -0.25, -0.25, 0.25, 0.00, 0.25, 0.00, 0.00, -0.25, -0.25, 0.25, 0.50, 0.00, -0.25, 0.25, -0.25, -0.25, -0.50, -0.25, 0.25, 0.00, 0.00, 0.50, 0.00, -0.25, 0.25, 0.25, 0.00, 0.00, 0.50, 0.00, -0.25, 0.25, -0.25, 0.25, 0.00, 0.00, 0.00, 0.00, 0.00, -0.25, -0.25, 0.00, 0.25, 0.25, 0.00, 0.50, -0.25, -0.25, 0.00, -0.25, 0.25, -0.25, 0.25, 0.00, 0.00, -0.25, 0.00, 0.00, 0.50, 0.00, 0.00, 0.25, -0.25, 0.00, -0.25, 0.00, 0.50, 0.00, 0.00, 0.00, 0.00, 0.00, 0.25, 0.25, 0.00, 0.00, 0.00, 0.00, -0.25, 0.25, 0.00, 0.00, 0.00, 0.00, 0.25, 0.25, 0.00, 0.00, 0.00, 0.25, 0.00, 0.00, 0.50, 0.00, 0.00, 0.00, 0.00, 0.00, 0.25, 0.00, 0.25, -0.25, 0.00, 0.00, 0.00, 0.00, 0.50, 0.00, 0.00, 0.25, -0.25, 0.00, 0.00, -0.25, 0.50, 0.00, -0.25, 0.00, 0.00, 0.00, 0.00, -0.25, 0.00, 0.00, 0.00, 0.00, 0.00, 0.00, -0.25, -0.25, 0.00, 0.00, 0.25, 0.00, 0.00, -0.25, -0.25, 0.25, 0.50, 0.00, 0.00, 0.25, 0.00, -0.25, 0.00, -0.25, 0.50, 0.00, 0.25, 0.25, 0.00, 0.00, 0.25, 0.00, 0.00, 0.00, 0.00, 0.25, 0.00, 0.00, 0.00, 0.00, 0.00, 0.00, 0.50, 0.00, 0.00, -0.25, 0.00, 0.00, 0.25, 0.25, 0.00, 0.25, -0.25, -0.25, -0.25, -0.25, 0.50, 0.00, 0.25, 0.00, 0.00, -0.25, 0.00, 0.25, 0.25, 0.00, 0.00, 0.25, -0.25, -0.25, 0.00, 0.00, 0.25, 0.00, 0.00, -0.25, 0.00, 0.25, 0.00, 0.25, 0.25, 0.00, 0.00, 0.25, 0.00, 0.00, 0.00, 0.00, 0.25, 0.00, 0.25, 0.25, 0.00, -0.25, 0.25, 0.25, -0.25, 0.00, 0.25, 0.00, 0.00, 0.00, 0.00, 0.25, 0.00, 0.00, 0.25, 0.00, 0.00, -0.25, 0.00, 0.25, 0.50, 0.25, -0.25, 0.25, -0.25, -0.25, -0.25, -0.25, 0.50, 0.25, 0.25, 0.00, 0.00, 0.00, 0.00, 0.00, 0.00, -0.25, 0.00, 0.25, 0.00, 0.25, 0.00, 0.00, 0.00, 0.25, 0.25, -0.25, -0.25, -0.25, 0.00, 0.25, 0.50, 0.25, -0.25, 0.25, 0.00, -0.25, -0.25, 0.00, 0.25, 0.25, 0.50, 0.25, 0.00, 0.00, 0.25, 0.00, 0.25, 0.00, 0.25, 0.00, -0.25, 0.25, -0.25, 0.00, 0.00, 0.00, 0.00, 0.00, 0.00, 0.00, 0.00, 0.25, 0.25, 0.25, -0.25, 0.25, -0.25, -0.25, 0.00, 0.00, 0.50, 0.00, 0.25, -0.25, 0.00, 0.00, 0.00, 0.25, 0.25, 0.25, 0.00, 0.50, -0.25, -0.25, 0.00, 0.25, 0.25, 0.25, 0.00, -0.25, 0.00, 0.25, -0.25, 0.00, 0.00, 0.00, 0.00, 0.00, 0.00, -0.25, 0.00, 0.00, 0.25, 0.00, 0.25, 0.25, 0.00, 0.25, 0.25, 0.25, 0.00, 0.00, 0.50, 0.00, 0.00, 0.25, 0.00, 0.00, 0.00, 0.00, 0.00, -0.25, 0.00, 0.00, 0.00, 0.25, 0.25, 0.50, 0.00, 0.50, -0.25, -0.50, -0.25, 0.00, 0.25, 0.25, 0.25, 0.25, 0.00, 0.00, 0.25, 0.00, 0.25, 0.00, 0.25, 0.25, 0.00, 0.00, -0.25, 0.00, 0.00, 0.00, 0.00, 0.00, 0.00, -0.25, 0.00, 0.25, 0.50, 0.25, -0.25, 0.25, 0.00, 0.00, -0.25, 0.00, 0.50, 0.00, 0.50, 0.25, 0.00, 0.25, 0.25, 0.00, 0.00, 0.25, 0.25, 0.25, 0.00, 0.00, 0.00, 0.00, 0.25, 0.00, 0.25, -0.25, 0.00, 0.00, -0.25, 0.25, 0.25, 0.50, -0.25, 0.50, -0.25, -0.25, 0.25, 0.00, 0.50, 0.00, 0.25, -0.25, -0.25, 0.00, -0.25, 0.25, 0.25, 0.25, -0.25, 0.25, -0.25, -0.25, 0.00, 0.00, 0.25, 0.25, 0.00, -0.25, 0.00, 0.00, 0.00, 0.00, 0.00, 0.25, 0.00, 0.00, 0.00, 0.00, 0.00, -0.25, 0.00, 0.25, 0.50, 0.25, 0.00, 0.25, 0.00, 0.00, 0.00, 0.25, 0.50, 0.00, 0.00, 0.25, 0.25, 0.25, 0.00, 0.00, 0.00, -0.25, 0.00, 0.25, 0.00, 0.00, 0.50, 0.25, -0.25, 0.50, -0.25, -0.50, 0.25, 0.00, 0.50, 0.25, 0.00, 0.00, 0.00, 0.25, 0.25, 0.00, 0.25, 0.00, 0.25, 0.25, -0.25, 0.25, 0.00, 0.00, 0.00, 0.00, 0.00, -0.25, 0.00, 0.00, 0.00, 0.25, 0.25, 0.25, -0.25, 0.25, -0.25, -0.25, 0.25, 0.00, 0.25, 0.25, 0.25, 0.25, 0.00, 0.00, 0.25, 0.25, 0.00, 0.00, 0.25, 0.00, 0.00, 0.25, 0.00, 0.25, 0.00, 0.00, 0.00, -0.25, -0.25, 0.00, 0.25, 0.00, 0.50, 0.25, 0.00, 0.25, -0.25, -0.25, 0.25, 0.00, 0.50, 0.00, 0.25, 0.00, 0.00, -0.25, 0.00, 0.00, 0.25, 0.00, 0.25, 0.25, 0.00, 0.00, 0.25, 0.00, 0.25, 0.25, 0.00, 0.00, 0.00, 0.00, 0.00, 0.00, 0.00, 0.00, 0.00, 0.00, 0.00, 0.00, 0.00, 0.00, 0.00, 0.00, 0.25, 0.25, 0.00, 0.25, 0.25, 0.25, 0.00, 0.00, 0.25, 0.00, 0.25, 0.25, 0.25, 0.00, 0.00, 0.25, 0.25, -0.25, 0.25, 0.00, 0.25, 0.25, 0.25, 0.25, 0.00, 0.25, -0.50, 0.00, 0.00, 0.00, 0.25, 0.25, 0.25, 0.00, 0.00, 0.25, 0.00, 0.00, 0.00, 0.25, 0.00, 0.25, 0.00, 0.00, 0.00, 0.00, 0.25, 0.00, 0.25, -0.25, -0.25, 0.00, 0.00, 0.00, 0.25, 0.00, 0.25, 0.25, -0.50, 0.00, 0.00, 0.25, 0.25, 0.00, 0.25, 0.00, 0.00, 0.25, 0.00, 0.00, 0.00, 0.00, 0.00, 0.25, 0.00, 0.00, 0.25, 0.25, 0.25, 0.25, 0.25, -0.25, 0.00, 0.00, 0.25, 0.00, 0.25, 0.50, 0.00, 0.25, -0.25, 0.00, 0.25, 0.00, 0.50, 0.00, 0.00, -0.50, -0.25, 0.00, 0.00, -0.25, 0.50, 0.50, 0.00, 0.50, 0.00, 0.25, 0.25, 0.00, 0.25, 0.00, 0.00, 0.00, 0.00, 0.00, 0.25, 0.25, 0.00, 0.00, 0.00, 0.00, 0.00, 0.00, 0.00, -0.25, 0.25, 0.25, 0.25, -0.25, 0.00, 0.25, 0.00, 0.00, 0.00, 0.25, 0.00, 0.00, 0.25, 0.00, 0.00, 0.00, 0.00, 0.00, 0.00, -0.50, 0.00, 0.00, 0.00, 0.25, 0.50, 0.25, 0.00, 0.50, 0.00, 0.25, 0.25, 0.00, 0.50, 0.00, 0.00, 0.00, -0.25, 0.00, 0.00, 0.25, 0.00, 0.25, 0.00, 0.00, 0.00, 0.25, 0.00, 0.00, 0.25, 0.00, 0.00, -0.25, 0.00, 0.00, 0.00, 0.00, 0.75, 0.25, 0.00, 0.25, 0.00, 0.25, 0.50, 0.25, 0.50, 0.00, 0.00, 0.25, 0.00, -0.50, 0.00, 0.25, 0.50, 0.25, 0.00, 0.25, -0.25, 0.00, -0.25, -0.25, 0.25, 0.00, 0.50, 0.25, 0.00, -0.25, 0.00, 0.50, 0.50, 0.25, 0.25, 0.50, -0.25, -0.25, -0.50, -0.25, 0.50, 0.00, 0.50, 0.25, 0.00, -0.25, 0.00, 0.50, 0.25, 0.25, 0.00, 0.50, -0.25, 0.00, -0.25, -0.25, 0.25, 0.25, 0.00, 0.00, -0.25, 0.00, 0.00, 0.00, 0.00, 0.00, 0.25, 0.00, 0.00, 0.00, 0.00, 0.00, 0.00, 0.00, 0.00, 0.00, 0.00, 0.00, -0.25, 0.00, 0.00, 0.00, 0.00, 0.25, -0.25, 0.00, 0.00, -0.25, 0.00, 0.00, 0.50, 0.50, 0.00, -0.25, 0.00, 0.50, 0.50, 0.50, 0.00, 0.75, -0.25, -0.25, -0.25, 0.00, 0.50, 0.00, 0.25, 0.00, 0.00, -0.25, -0.25, 0.25, 0.25, 0.00, 0.00, 0.25, -0.25, -0.25, -0.50, -0.25, 0.25, 0.25, 0.25, 0.25, 0.00, -0.25, 0.00, 0.25, 0.50, 0.25, 0.00, 0.75, -0.25, -0.25, -0.25, -0.25, 0.50, 0.25, 0.00, 0.25, 0.00, -0.25, -0.25, 0.00, 0.25, 0.25, 0.25, 0.25, -0.25, 0.00, 0.00, 0.00, 0.00, 0.00, 0.50, 0.25, 0.00, -0.25, 0.25, 0.00, 0.25, 0.25, 0.00, 0.25, -0.25, -0.25, -0.25, -0.25, 0.25, 0.00, 0.25, 0.00, 0.00, -0.25, 0.25, 0.50, 0.25, 0.25, 0.25, 0.25, -0.25, 0.25, -0.25, 0.00, 0.25, 0.25, 0.00, 0.00, 0.00, 0.00, 0.25, 0.00, 0.00, 0.00, 0.00, 0.00, 0.00, 0.00, 0.00, 0.00, 0.00, 0.00, 0.25, 0.25, 0.00, -0.25, 0.00, 0.00, 0.00, 0.00, 0.25, 0.00, -0.25, 0.00, 0.00, -0.25, 0.00, 0.25, 0.25, 0.25, 0.00, 0.00, 0.00, 0.25, 0.25, 0.25, 0.00, 0.25, 0.00, -0.25, -0.25, -0.25, 0.25, 0.25, 0.25, 0.00, 0.00, 0.00, 0.25, 0.25, 0.00, 0.25, 0.25, -0.25, 0.00, 0.25, 0.00, 0.00, 0.00, 0.00, 0.25, 0.25, 0.00, -0.25, 0.00, 0.00, 0.25, 0.00, 0.00, 0.25, -0.25, -0.25, -0.25, -0.25, 0.25, 0.00, 0.25, 0.00, 0.00, -0.25, 0.00, 0.00, 0.25, 0.25, 0.00, 0.25, -0.25, 0.00, -0.25, 0.00, 0.25, 0.00, 0.50, 0.25, 0.00, -0.25, 0.25, 0.25, 0.50, 0.25, 0.00, 0.50, -0.25, -0.25, -0.25, -0.25, 0.25, 0.00, 0.25, 0.00, 0.00, 0.00, 0.00, 0.25, 0.25, 0.25, 0.00, 0.25, -0.25, 0.00, 0.00, 0.00, 0.50, 0.25, 0.00, 0.00, 0.00, 0.00, 0.00, 0.00, 0.00, 0.00, 0.25, 0.00, 0.00, 0.00, 0.00, 0.00, 0.25, 0.25, 0.00, 0.25, 0.25, 0.00, 0.25, 0.25, 0.00, 0.00, 0.25, 0.25, 0.00, 0.25, 0.00, 0.00, 0.00, 0.25, 0.50, 0.00, 0.00, -0.25, 0.00, 0.50, 0.25, 0.25, 0.00, 0.25, -0.25, 0.00, -0.25, 0.00, 0.25, 0.25, 0.00, 0.25, 0.00, 0.00, 0.25, 0.00, 0.00, 0.00, 0.25, 0.25, -0.25, 0.00, -0.25, 0.00, 0.00, 0.25, 0.25, 0.25, 0.00, -0.25, 0.25, 0.25, 0.25, 0.25, 0.25, 0.50, -0.25, -0.25, -0.25, 0.00, 0.25, 0.00, 0.00, 0.00, -0.25, -0.25, 0.00, 0.25, 0.00, 0.25, 0.00, 0.50, -0.25, 0.00, -0.25, 0.00, 0.00, 0.00, 0.25, 0.00, 0.00, 0.00, 0.25, 0.25, 0.50, 0.25, 0.00, 0.25, -0.25, 0.00, -0.25, 0.25, 0.50, 0.25, 0.00, 0.25, 0.00, 0.00, 0.25, 0.25, 0.50, 0.25, 0.25, 0.25, 0.00, 0.00, -0.25, 0.00, 0.25, 0.00, 0.00, 0.00, 0.00, 0.00, 0.00, 0.00, 0.25, 0.00, 0.00, 0.00, 0.00, 0.00, 0.25, -0.25, 0.00, 0.00, 0.25, 0.25, 0.00, 0.25, 0.00, 0.25, 0.00, 0.00, 0.25, 0.00, 0.00, 0.25, 0.00, 0.25, 0.00, 0.00, 0.25, 0.00, 0.00, 0.00, 0.00, 0.25, 0.25, 0.25, 0.00, 0.25, -0.50, 0.00, -0.25, 0.00, 0.50, 0.25, 0.25, 0.25, 0.00, -0.25, 0.25, 0.25, 0.00, 0.00, 0.25, 0.00, 0.00, 0.00, 0.00, 0.00, 0.00, 0.00, 0.25, 0.00, 0.00, 0.00, 0.25, 0.25, 0.25, 0.25, 0.00, 0.50, -0.25, -0.25, -0.25, 0.00, 0.25, 0.00, 0.00, 0.00, 0.00, 0.00, 0.25, 0.25, 0.00, 0.25, 0.00, 0.50, 0.00, 0.00, 0.00, 0.00, 0.25, 0.00, 0.25, 0.00, 0.00, 0.25, 0.00, 0.25, 0.25, 0.25, 0.00, 0.25, -0.25, -0.25, 0.00, 0.00, 0.25, 0.00, 0.00, 0.25, 0.00, 0.25, 0.25, 0.25, 0.25, 0.50, 0.25, 0.25, -0.25, 0.25, 0.00, 0.25, 0.25, 0.25, 0.00, -0.25, 0.00, 0.00, 0.00, 0.00, 0.00, 0.25, 0.25, 0.25, 0.00, 0.00, 0.00, 0.00, 0.00, 0.25, 0.00, 0.00, 0.00, 0.00, 0.25, 0.00, 0.00, 0.00, 0.25, 0.00, 0.00, 0.00, 0.00, 0.00, 0.00, 0.00, 0.25, -0.25, 0.00, 0.25, 0.25, 0.50, 0.50, 0.25, 0.25, 0.50, -0.25, -0.25, 0.00, 0.25, 0.25, 0.25, 0.25, 0.25, 0.00, 0.00, 0.00, 0.25, -0.25, 0.00, 0.25, 0.25, 0.00, 0.25, 0.00, 0.25, 0.00, 0.00, 0.00, 0.00, -0.25, 0.00, 0.00, 0.25, 0.50, 0.25, 0.25, 0.25, -0.50, 0.00, 0.00, 0.00, 0.25, 0.00, 0.00, 0.00, -0.25, 0.25, 0.25, 0.00, 0.00, 0.25, 0.00, 0.25, 0.25, 0.00, 0.25, 0.00, 0.25, 0.00, 0.50, -0.25, 0.00, 0.25, 0.00, 0.25, 0.25, 0.00, 0.25, 0.50, -0.25, 0.25, 0.00, 0.25, 0.25, 0.00, 0.25, 0.00, 0.00, 0.50, 0.00, 0.25, 0.25, 0.25, 0.00, 0.25, 0.00, 0.25, 0.25, 0.00, 0.50, 0.25, 0.00, 0.00, -0.25, 0.00, 0.00, 0.00, 0.00, 0.00, 0.00, 0.00, 0.00, 0.00, 0.00, 0.00, -0.25, 0.25, 0.25, 0.50, 0.00, 0.00, 0.25, 0.25, 0.00, 0.00, 0.25, 0.00, 0.00, 0.00, 0.25, 0.25, 0.00, 0.00, 0.25, -0.25, 0.00, 0.00, 0.00, 0.25, 0.25, 0.25, 0.00, 0.25, -0.25, 0.00, 0.25, 0.25, 0.25, 0.00, 0.25, 0.00, 0.00, 0.25, 0.00, 0.00, 0.00, 0.00, 0.25, 0.00, 0.25, 0.00, 0.00, 0.00, 0.00, 0.00, 0.25, 0.00, 0.00, 0.25, 0.00, 0.00, 0.25, 0.25, 0.00, 0.25, -0.25, 0.00, 0.25, 0.00, 0.25, 0.25, 0.00, -0.25, 0.00, 0.00, 0.25, 0.25, 0.00, 0.50, 0.00, 0.25, 0.00, -0.25, 0.25, -0.25, 0.25, 0.00, 0.25, -0.25, 0.00, 0.25, 0.25, 0.50, 0.25, 0.50, 0.00, 0.50, 0.00, 0.25, 0.25, 0.25, 0.50, 0.25, 0.25, 0.00, 0.00, 0.00, 0.25, 0.25, 0.50, 0.50, 0.25, 0.75, 0.00, 0.00, 0.25, 0.00, 0.25, 0.00, 0.00, 0.00, -0.25, 0.00, 0.00, 0.25, 0.00, 0.00, 0.00, 0.00, 0.00, 0.00, 0.00, 0.00, 0.00, 0.00, 0.00, 0.00, 0.00, 0.25, 0.00, 0.00, 0.25, 0.25, 0.00, 0.00, 0.00, 0.00, 0.25, 0.00, 0.00, 0.25, 0.25, -0.25, 0.00, 0.25, 0.25, 0.50, 0.50, 0.25, 0.00, 0.75, 0.00, 0.25, 0.00, 0.25, 0.50, 0.25, 0.25, 0.00, 0.00, 0.00, 0.50, 0.00, 0.00, 0.00, 0.25, -0.25, 0.25, 0.25, 0.00, 0.25, 0.25, 0.00, 0.25, -0.25, 0.00, 0.00, 0.25, 0.25, 0.50, 0.25, 0.25, 0.50, 0.00, 0.25, 0.25, 0.00, 0.50};
#endif

#endif
